svm_type c_svc
kernel_type rbf
gamma 0.005
nr_class 2
total_sv 200
rho -2.79475
label 1 -1
nr_sv 102 98
SV
100 1:0.079075 2:-0.54698 3:0.079457 4:-0.1868 5:0.26868 
100 1:0.079075 2:-0.54698 3:0.079457 4:-0.1868 5:0.26868 
100 1:0.079075 2:-0.54698 3:0.079457 4:-0.1868 5:0.26868 
100 1:0.079075 2:-0.54698 3:0.079457 4:-0.1868 5:0.26868 
100 1:0.079075 2:-0.54698 3:0.079457 4:-0.1868 5:0.26868 
100 1:0.079075 2:-0.54698 3:0.079457 4:-0.1868 5:0.26868 
100 1:0.079075 2:-0.54698 3:0.079457 4:-0.1868 5:0.26868 
91.42858810279709 1:0.079075 2:-0.54698 3:0.079457 4:-0.1868 5:0.26868 
100 1:0.079075 2:-0.54698 3:0.079457 4:-0.1868 5:0.26868 
100 1:0.079075 2:-0.54698 3:0.079457 4:-0.1868 5:0.26868 
100 1:0.079075 2:-0.54698 3:0.079457 4:-0.1868 5:0.26868 
100 1:0.079075 2:-0.54698 3:0.079457 4:-0.1868 5:0.26868 
100 1:0.079075 2:-0.54698 3:0.079457 4:-0.1868 5:0.26868 
100 1:0.079075 2:-0.54698 3:0.079457 4:-0.1868 5:0.26868 
100 1:0.079075 2:-0.54698 3:0.079457 4:-0.1868 5:0.26868 
3.100905941086111 1:0.079075 2:-0.54698 3:0.079457 4:-0.1868 5:0.26868 
100 1:0.079075 2:-0.54698 3:0.079457 4:-0.1868 5:0.26868 
100 1:0.079075 2:-0.54698 3:0.079457 4:-0.1868 5:0.26868 
100 1:0.079075 2:-0.54698 3:0.079457 4:-0.1868 5:0.26868 
100 1:0.25935 2:-0.30832 3:0.010529 4:-0.332 5:-0.11384 
100 1:0.27604 2:-0.29125 3:0.0049939 4:-0.3464 5:-0.14589 
100 1:0.27612 2:-0.29384 3:0.0054176 4:-0.34697 5:-0.14425 
100 1:0.25752 2:-0.3257 3:0.013747 4:-0.33335 5:-0.099933 
100 1:0.2728 2:-0.30703 3:0.0081679 4:-0.34595 5:-0.13131 
100 1:0.25192 2:-0.32309 3:0.0142 4:-0.32695 5:-0.094771 
100 1:0.27669 2:-0.23254 3:-0.0049919 4:-0.33599 5:-0.18601 
100 1:0.26034 2:-0.30592 3:0.0099675 4:-0.3326 5:-0.11667 
100 1:0.27132 2:-0.29063 3:0.0056425 4:-0.34129 5:-0.14047 
100 1:0.25004 2:-0.29902 3:0.010448 4:-0.32042 5:-0.10857 
100 1:0.27831 2:-0.27534 3:0.0019541 4:-0.34578 5:-0.15934 
100 1:0.24577 2:-0.34653 3:0.019126 4:-0.32489 5:-0.071476 
100 1:0.24088 2:-0.35101 3:0.020661 4:-0.32058 5:-0.062433 
100 1:0.25931 2:-0.28427 3:0.0064865 4:-0.32742 5:-0.1299 
100 1:0.25734 2:-0.33262 3:0.014939 4:-0.33448 5:-0.095086 
100 1:0.27306 2:-0.31078 3:0.0087563 4:-0.34694 5:-0.12913 
100 1:0.24249 2:-0.34813 3:0.019919 4:-0.32173 5:-0.066352 
100 1:0.25874 2:-0.32917 3:0.014135 4:-0.3353 5:-0.099128 
100 1:0.24514 2:-0.34841 3:0.019543 4:-0.32458 5:-0.069441 
100 1:0.2523 2:-0.3373 3:0.016533 4:-0.33003 5:-0.085714 
100 1:0.25721 2:-0.3315 3:0.014772 4:-0.33413 5:-0.095675 
0.2118262801066541 1:0.25912 2:-0.33055 3:0.014309 4:-0.33596 5:-0.098662 
100 1:0.25655 2:-0.3318 3:0.014927 4:-0.33348 5:-0.094657 
100 1:0.25467 2:-0.3352 3:0.0158 4:-0.33215 5:-0.090059 
100 1:0.25821 2:-0.33244 3:0.014772 4:-0.33535 5:-0.096272 
97.81239046883644 1:0.26258 2:-0.32683 3:0.013131 4:-0.33891 5:-0.10543 
100 1:0.2584 2:-0.33118 3:0.014529 4:-0.33532 5:-0.097354 
100 1:0.24495 2:-0.34736 3:0.019398 4:-0.32418 5:-0.069902 
100 1:0.25871 2:-0.32997 3:0.014276 4:-0.33541 5:-0.098544 
100 1:0.25614 2:-0.33206 3:0.015038 4:-0.3331 5:-0.09397 
100 1:0.26027 2:-0.3277 3:0.013645 4:-0.33664 5:-0.102 
78.99898698607848 1:0.26189 2:-0.32701 3:0.01327 4:-0.33822 5:-0.10446 
100 1:0.24849 2:-0.34179 3:0.017896 4:-0.32686 5:-0.078004 
100 1:0.24064 2:-0.35159 3:0.020796 4:-0.32043 5:-0.06175 
100 1:0.2573 2:-0.33259 3:0.014941 4:-0.33443 5:-0.095055 
100 1:0.2504 2:-0.34032 3:0.017343 4:-0.3286 5:-0.081351 
100 1:0.25169 2:-0.33938 3:0.016979 4:-0.32979 5:-0.083579 
100 1:0.2508 2:-0.33824 3:0.01693 4:-0.32863 5:-0.083237 
100 1:0.25451 2:-0.3331 3:0.015472 4:-0.33158 5:-0.091266 
100 1:0.25235 2:-0.33728 3:0.016519 4:-0.33009 5:-0.085803 
100 1:0.26257 2:-0.3248 3:0.01279 4:-0.33852 5:-0.10678 
100 1:0.25459 2:-0.33156 3:0.015199 4:-0.33137 5:-0.092401 
100 1:0.25873 2:-0.33011 3:0.014296 4:-0.33547 5:-0.098479 
100 1:0.25008 2:-0.34025 3:0.017381 4:-0.32826 5:-0.081012 
100 1:0.25723 2:-0.32862 3:0.014284 4:-0.3336 5:-0.097625 
100 1:0.25734 2:-0.32912 3:0.014351 4:-0.33381 5:-0.097424 
100 1:0.24711 2:-0.34492 3:0.018642 4:-0.326 5:-0.07421 
27.5688359719435 1:0.25578 2:-0.33437 3:0.015484 4:-0.33315 5:-0.091978 
100 1:0.25443 2:-0.33459 3:0.015735 4:-0.33177 5:-0.090171 
100 1:0.25843 2:-0.32643 3:0.013725 4:-0.33446 5:-0.10057 
100 1:0.24525 2:-0.34749 3:0.019372 4:-0.32453 5:-0.070191 
100 1:0.24267 2:-0.34776 3:0.019828 4:-0.32185 5:-0.066827 
100 1:0.24297 2:-0.34504 3:0.019322 4:-0.32165 5:-0.069019 
0.7681956363461472 1:0.25751 2:-0.33234 3:0.014867 4:-0.3346 5:-0.095475 
100 1:0.25481 2:-0.33387 3:0.015554 4:-0.33204 5:-0.091121 
100 1:0.26776 2:-0.31647 3:0.010559 4:-0.34243 5:-0.11877 
100 1:0.26348 2:-0.3221 3:0.012189 4:-0.33897 5:-0.10972 
100 1:0.26252 2:-0.32399 3:0.012662 4:-0.33831 5:-0.10726 
100 1:0.24504 2:-0.34519 3:0.019017 4:-0.32387 5:-0.071475 
100 1:0.25836 2:-0.32982 3:0.014305 4:-0.33502 5:-0.098222 
100 1:0.24281 2:-0.35079 3:0.020316 4:-0.32257 5:-0.064964 
100 1:0.25392 2:-0.33198 3:0.015378 4:-0.33075 5:-0.091286 
100 1:0.25195 2:-0.33996 3:0.017036 4:-0.33017 5:-0.083503 
100 1:0.2595 2:-0.32799 3:0.013817 4:-0.33588 5:-0.10085 
100 1:0.25819 2:-0.32729 3:0.013906 4:-0.33436 5:-0.099706 
100 1:0.25688 2:-0.33135 3:0.0148 4:-0.33374 5:-0.09536 
100 1:0.25935 2:-0.30832 3:0.010529 4:-0.332 5:-0.11384 
100 1:0.27604 2:-0.29125 3:0.0049939 4:-0.3464 5:-0.14589 
100 1:0.27612 2:-0.29384 3:0.0054176 4:-0.34697 5:-0.14425 
100 1:0.25752 2:-0.3257 3:0.013747 4:-0.33335 5:-0.099933 
100 1:0.2728 2:-0.30703 3:0.0081679 4:-0.34595 5:-0.13131 
100 1:0.25192 2:-0.32309 3:0.0142 4:-0.32695 5:-0.094771 
100 1:0.27669 2:-0.23254 3:-0.0049919 4:-0.33599 5:-0.18601 
100 1:0.27132 2:-0.29063 3:0.0056425 4:-0.34129 5:-0.14047 
100 1:0.25004 2:-0.29902 3:0.010448 4:-0.32042 5:-0.10857 
100 1:0.27831 2:-0.27534 3:0.0019541 4:-0.34578 5:-0.15934 
100 1:0.24577 2:-0.34653 3:0.019126 4:-0.32489 5:-0.071476 
100 1:0.24088 2:-0.35101 3:0.020661 4:-0.32058 5:-0.062433 
100 1:0.25931 2:-0.28427 3:0.0064865 4:-0.32742 5:-0.1299 
100 1:0.25734 2:-0.33262 3:0.014939 4:-0.33448 5:-0.095086 
100 1:0.25781 2:-0.33292 3:0.014917 4:-0.33502 5:-0.095453 
100 1:0.27306 2:-0.31078 3:0.0087563 4:-0.34694 5:-0.12913 
100 1:0.24249 2:-0.34813 3:0.019919 4:-0.32173 5:-0.066352 
-100 1:0.22071 2:-0.36404 3:0.026072 4:-0.30175 5:-0.028794 
-100 1:0.21555 2:-0.37 3:0.027898 4:-0.29742 5:-0.018425 
-100 1:0.22514 2:-0.35966 3:0.024629 4:-0.30559 5:-0.037194 
-100 1:0.21932 2:-0.36593 3:0.026612 4:-0.30064 5:-0.025809 
-100 1:0.21976 2:-0.36532 3:0.026439 4:-0.30098 5:-0.026759 
-100 1:0.22579 2:-0.35862 3:0.024348 4:-0.30608 5:-0.038702 
-100 1:0.21096 2:-0.37446 3:0.029381 4:-0.29342 5:-0.0097676 
-100 1:0.22781 2:-0.35647 3:0.023665 4:-0.30781 5:-0.042634 
-100 1:0.19227 2:-0.39283 3:0.035455 4:-0.27717 5:0.02562 
-100 1:0.22733 2:-0.35709 3:0.023845 4:-0.30742 5:-0.041625 
-100 1:0.23037 2:-0.35377 3:0.022802 4:-0.31 5:-0.047606 
-100 1:0.21357 2:-0.37185 3:0.028525 4:-0.29569 5:-0.014748 
-100 1:0.21365 2:-0.37171 3:0.028487 4:-0.29575 5:-0.014944 
-100 1:0.2213 2:-0.36371 3:0.025922 4:-0.3023 5:-0.029742 
-100 1:0.23461 2:-0.34895 3:0.021314 4:-0.31357 5:-0.056072 
-100 1:0.22497 2:-0.35963 3:0.02465 4:-0.30541 5:-0.03701 
-100 1:0.2309 2:-0.353 3:0.022587 4:-0.31042 5:-0.048781 
-100 1:0.23507 2:-0.34849 3:0.021163 4:-0.31396 5:-0.056945 
-100 1:0.22503 2:-0.35945 3:0.024611 4:-0.30544 5:-0.037201 
-100 1:0.22303 2:-0.36191 3:0.025343 4:-0.30379 5:-0.033082 
-100 1:0.20072 2:-0.3852 3:0.032821 4:-0.28464 5:0.010065 
-100 1:0.19341 2:-0.39258 3:0.03523 4:-0.27832 5:0.024039 
-100 1:0.21772 2:-0.36748 3:0.027127 4:-0.29924 5:-0.022796 
-100 1:0.22153 2:-0.36363 3:0.025871 4:-0.30254 5:-0.030087 
-100 1:0.2157 2:-0.36951 3:0.027792 4:-0.29749 5:-0.018939 
-100 1:0.23291 2:-0.35088 3:0.02191 4:-0.31214 5:-0.052681 
-100 1:0.21257 2:-0.3729 3:0.028861 4:-0.29483 5:-0.012807 
-100 1:0.20428 2:-0.38162 3:0.031651 4:-0.28773 5:0.0032705 
-100 1:0.2055 2:-0.38045 3:0.031261 4:-0.28879 5:0.00099068 
-100 1:0.22358 2:-0.36119 3:0.025134 4:-0.30424 5:-0.03425 
-100 1:0.21816 2:-0.36683 3:0.026947 4:-0.29959 5:-0.023781 
-100 1:0.22192 2:-0.3629 3:0.025687 4:-0.3028 5:-0.031051 
-100 1:0.22291 2:-0.36204 3:0.025384 4:-0.30369 5:-0.032849 
-100 1:0.21167 2:-0.37382 3:0.02916 4:-0.29406 5:-0.01108 
-100 1:0.22881 2:-0.35533 3:0.023314 4:-0.30865 5:-0.044629 
-100 1:0.21993 2:-0.36509 3:0.026374 4:-0.30112 5:-0.02712 
-100 1:0.23899 2:-0.34436 3:0.019842 4:-0.31733 5:-0.064559 
-100 1:0.22629 2:-0.35816 3:0.024191 4:-0.30652 5:-0.039625 
-100 1:0.23521 2:-0.34843 3:0.021132 4:-0.3141 5:-0.057154 
-100 1:0.19147 2:-0.39428 3:0.035827 4:-0.27659 5:0.027584 
-100 1:0.23463 2:-0.34899 3:0.021318 4:-0.31359 5:-0.056067 
-100 1:0.22454 2:-0.36016 3:0.024808 4:-0.30505 5:-0.036122 
-100 1:0.24247 2:-0.34051 3:0.01864 4:-0.32027 5:-0.07143 
-100 1:0.23178 2:-0.35226 3:0.022322 4:-0.3112 5:-0.05036 
-100 1:0.24007 2:-0.34312 3:0.019462 4:-0.31822 5:-0.066717 
-100 1:0.23487 2:-0.34871 3:0.021232 4:-0.3138 5:-0.056554 
-100 1:0.22959 2:-0.35455 3:0.023057 4:-0.30933 5:-0.046122 
-100 1:0.23095 2:-0.35309 3:0.022596 4:-0.31048 5:-0.04877 
-100 1:0.22265 2:-0.36201 3:0.025422 4:-0.30341 5:-0.032542 
-100 1:0.22952 2:-0.35465 3:0.023085 4:-0.30927 5:-0.045969 
-100 1:0.22173 2:-0.36294 3:0.025723 4:-0.30261 5:-0.030791 
-100 1:0.23438 2:-0.34936 3:0.02142 4:-0.3134 5:-0.055512 
-100 1:0.22869 2:-0.3558 3:0.023411 4:-0.30862 5:-0.044174 
-100 1:0.21222 2:-0.37313 3:0.028956 4:-0.2945 5:-0.012217 
-100 1:0.23673 2:-0.34681 3:0.020618 4:-0.3154 5:-0.060112 
-100 1:0.2435 2:-0.33943 3:0.018294 4:-0.32115 5:-0.073426 
-100 1:0.20306 2:-0.38284 3:0.032051 4:-0.28667 5:0.0055979 
-100 1:0.2331 2:-0.35092 3:0.021886 4:-0.31235 5:-0.05289 
-100 1:0.2159 2:-0.36938 3:0.027739 4:-0.29768 5:-0.019271 
-100 1:0.23822 2:-0.34525 3:0.020115 4:-0.31668 5:-0.063011 
-100 1:0.24449 2:-0.33825 3:0.017937 4:-0.32198 5:-0.075442 
-100 1:0.24667 2:-0.33583 3:0.017182 4:-0.32382 5:-0.079753 
-100 1:0.23515 2:-0.34845 3:0.021145 4:-0.31404 5:-0.057066 
-100 1:0.23391 2:-0.34992 3:0.021589 4:-0.31301 5:-0.054555 
-100 1:0.22979 2:-0.35453 3:0.023023 4:-0.30953 5:-0.046375 
-100 1:0.23053 2:-0.35364 3:0.022755 4:-0.31015 5:-0.047888 
-100 1:0.20459 2:-0.38115 3:0.031523 4:-0.28797 5:0.0025764 
-100 1:0.22603 2:-0.35867 3:0.024318 4:-0.30635 5:-0.038967 
-100 1:0.22737 2:-0.35697 3:0.023819 4:-0.30744 5:-0.041755 
-100 1:0.21985 2:-0.36499 3:0.026368 4:-0.30102 5:-0.027098 
-100 1:0.21588 2:-0.36932 3:0.027731 4:-0.29764 5:-0.019292 
-100 1:0.22225 2:-0.36247 3:0.025561 4:-0.30307 5:-0.031749 
-100 1:0.19417 2:-0.39138 3:0.034907 4:-0.27889 5:0.022302 
-100 1:0.22847 2:-0.35582 3:0.02345 4:-0.30839 5:-0.043885 
-100 1:0.23619 2:-0.34745 3:0.02081 4:-0.31495 5:-0.059023 
-100 1:0.22171 2:-0.36304 3:0.025744 4:-0.30261 5:-0.030694 
-100 1:0.23244 2:-0.35144 3:0.02208 4:-0.31175 5:-0.051719 
-100 1:0.18261 2:-0.40348 3:0.038788 4:-0.26898 5:0.04468 
-100 1:0.20957 2:-0.37608 3:0.029874 4:-0.29226 5:-0.0069744 
-100 1:0.21861 2:-0.3664 3:0.026804 4:-0.29997 5:-0.024616 
-100 1:0.21845 2:-0.36675 3:0.026889 4:-0.29987 5:-0.024186 
-100 1:0.22234 2:-0.3626 3:0.02557 4:-0.30319 5:-0.031764 
-100 1:0.22719 2:-0.35764 3:0.02396 4:-0.30738 5:-0.041088 
-100 1:0.23125 2:-0.35279 3:0.022498 4:-0.31074 5:-0.04934 
-100 1:0.23333 2:-0.35078 3:0.021827 4:-0.31256 5:-0.053257 
-100 1:0.21711 2:-0.36816 3:0.027338 4:-0.29873 5:-0.021594 
-100 1:0.23521 2:-0.34848 3:0.021139 4:-0.31411 5:-0.057129 
-100 1:0.22498 2:-0.35949 3:0.024625 4:-0.3054 5:-0.037115 
-100 1:0.23123 2:-0.35258 3:0.022465 4:-0.31069 5:-0.049463 
-100 1:0.2214 2:-0.36351 3:0.025872 4:-0.30237 5:-0.030002 
-100 1:0.24465 2:-0.33795 3:0.017862 4:-0.32208 5:-0.075832 
-100 1:0.23222 2:-0.35165 3:0.022149 4:-0.31156 5:-0.051314 
-100 1:0.22626 2:-0.35821 3:0.024205 4:-0.3065 5:-0.039554 
-100 1:0.21631 2:-0.36897 3:0.027603 4:-0.29803 5:-0.020057 
-100 1:0.20013 2:-0.38575 3:0.033008 4:-0.28413 5:0.011164 
-100 1:0.22128 2:-0.36366 3:0.025917 4:-0.30227 5:-0.029752 
-100 1:0.20838 2:-0.37736 3:0.030281 4:-0.29124 5:-0.004639 
-100 1:0.22492 2:-0.3597 3:0.02467 4:-0.30537 5:-0.036896 
