svm_type c_svc
kernel_type rbf
gamma 0.005
nr_class 2
total_sv 80
rho 0.0115821
label 1 -1
nr_sv 40 40
SV
100 1:0.13944 2:0.087758 3:0.14032 4:-0.1377 5:-0.11299 
100 1:0.14469 2:0.11333 3:0.09046 4:-0.14508 5:-0.12861 
100 1:0.1399 2:0.090851 3:0.13385 4:-0.13844 5:-0.1148 
100 1:0.14209 2:0.091488 3:0.1379 4:-0.14053 5:-0.11619 
100 1:0.14472 2:0.11952 3:0.075213 4:-0.14572 5:-0.13178 
100 1:0.14216 2:0.095297 3:0.12863 4:-0.14096 5:-0.11817 
100 1:0.13544 2:0.0649 3:0.1867 4:-0.13176 5:-0.099377 
100 1:0.14688 2:0.12095 3:0.0772 4:-0.14785 5:-0.13356 
100 1:0.1542 2:0.17681 3:-0.042401 4:-0.16012 5:-0.16564 
100 1:0.14238 2:0.088408 3:0.14625 4:-0.14049 5:-0.11476 
100 1:0.15526 2:0.17356 3:-0.031624 4:-0.16078 5:-0.1645 
100 1:0.13891 2:0.082535 3:0.15192 4:-0.13671 5:-0.11007 
100 1:0.14174 2:0.092241 3:0.13513 4:-0.14028 5:-0.11641 
100 1:0.14471 2:0.097811 3:0.12896 4:-0.14358 5:-0.1207 
100 1:0.14604 2:0.12485 3:0.065406 4:-0.14746 5:-0.13514 
100 1:0.1415 2:0.09058 3:0.13862 4:-0.13989 5:-0.11544 
100 1:0.14771 2:0.11157 3:0.10255 4:-0.1477 5:-0.12919 
100 1:0.14479 2:0.10261 3:0.11726 4:-0.14411 5:-0.12318 
100 1:0.14435 2:0.098012 3:0.12752 4:-0.14326 5:-0.12062 
100 1:0.13805 2:0.076819 3:0.16387 4:-0.13535 5:-0.10673 
100 1:0.14489 2:0.13015 3:0.049316 4:-0.14692 5:-0.13728 
100 1:0.1445 2:0.11612 3:0.083037 4:-0.14517 5:-0.12993 
100 1:0.14891 2:0.15093 3:0.008142 4:-0.15268 5:-0.14985 
100 1:0.15338 2:0.17606 3:-0.042646 4:-0.15929 5:-0.16486 
100 1:0.1514 2:0.1422 3:0.036151 4:-0.15413 5:-0.14662 
100 1:0.14485 2:0.10279 3:0.11698 4:-0.14419 5:-0.12331 
100 1:0.15771 2:0.21203 3:-0.12062 4:-0.16683 5:-0.18532 
100 1:0.14456 2:0.11565 3:0.084378 4:-0.14519 5:-0.12972 
100 1:0.13855 2:0.079941 3:0.15742 4:-0.13612 5:-0.10857 
100 1:0.13944 2:0.087758 3:0.14032 4:-0.1377 5:-0.11299 
100 1:0.14469 2:0.11333 3:0.09046 4:-0.14508 5:-0.12861 
100 1:0.1399 2:0.090851 3:0.13385 4:-0.13844 5:-0.1148 
100 1:0.14209 2:0.091488 3:0.1379 4:-0.14053 5:-0.11619 
100 1:0.14472 2:0.11952 3:0.075213 4:-0.14572 5:-0.13178 
100 1:0.14216 2:0.095297 3:0.12863 4:-0.14096 5:-0.11817 
100 1:0.14688 2:0.12095 3:0.0772 4:-0.14785 5:-0.13356 
100 1:0.1542 2:0.17681 3:-0.042401 4:-0.16012 5:-0.16564 
100 1:0.14238 2:0.088408 3:0.14625 4:-0.14049 5:-0.11476 
100 1:0.15526 2:0.17356 3:-0.031624 4:-0.16078 5:-0.1645 
100 1:0.13891 2:0.082535 3:0.15192 4:-0.13671 5:-0.11007 
-100 1:0.15531 2:0.14685 3:0.034656 4:-0.1582 5:-0.1509 
-100 1:0.16306 2:0.22156 3:-0.13051 4:-0.17272 5:-0.1928 
-100 1:0.15946 2:0.18577 3:-0.05108 4:-0.16587 5:-0.17278 
-100 1:0.15979 2:0.19612 3:-0.075859 4:-0.1672 5:-0.17822 
-100 1:0.1529 2:0.15624 3:0.0052182 4:-0.15689 5:-0.15451 
-100 1:0.159 2:0.17605 3:-0.028196 4:-0.16449 5:-0.1676 
-100 1:0.1551 2:0.15967 3:0.0023702 4:-0.15926 5:-0.15733 
-100 1:0.15968 2:0.19329 3:-0.069152 4:-0.16681 5:-0.17672 
-100 1:0.16249 2:0.19472 3:-0.065472 4:-0.16956 5:-0.17883 
-100 1:0.16572 2:0.22514 3:-0.13255 4:-0.17554 5:-0.19593 
-100 1:0.15351 2:0.14924 3:0.024137 4:-0.15678 5:-0.15124 
-99.99999999999999 1:0.16313 2:0.23496 3:-0.16352 4:-0.17411 5:-0.19967 
-100 1:0.1659 2:0.20996 3:-0.094484 4:-0.17421 5:-0.18827 
-100 1:0.14949 2:0.12976 3:0.062076 4:-0.15114 5:-0.13933 
-100 1:0.16762 2:0.23092 3:-0.142 4:-0.17786 5:-0.19981 
-100 1:0.15654 2:0.16926 3:-0.017688 4:-0.16154 5:-0.16293 
-100 1:0.16093 2:0.19177 3:-0.062173 4:-0.16782 5:-0.17656 
-100 1:0.16625 2:0.21897 3:-0.1159 4:-0.17542 5:-0.19304 
-100 1:0.15618 2:0.13672 3:0.061995 4:-0.15801 5:-0.14616 
-100 1:0.15439 2:0.13713 3:0.056398 4:-0.1564 5:-0.14549 
-100 1:0.14673 2:0.088911 3:0.15618 4:-0.14457 5:-0.11715 
-100 1:0.15389 2:0.15368 3:0.014118 4:-0.15756 5:-0.15369 
-100 1:0.15387 2:0.15032 3:0.022386 4:-0.15721 5:-0.15196 
-100 1:0.16283 2:0.19208 3:-0.058079 4:-0.16961 5:-0.17765 
-100 1:0.15098 2:0.12055 3:0.0887 4:-0.15161 5:-0.13537 
-100 1:0.16073 2:0.18534 3:-0.04676 4:-0.167 5:-0.17318 
-100 1:0.16331 2:0.19018 3:-0.052144 4:-0.16987 5:-0.17692 
-100 1:0.14626 2:0.091862 3:0.14766 4:-0.14442 5:-0.11842 
-100 1:0.15245 2:0.13402 3:0.059108 4:-0.15429 5:-0.14295 
-100 1:0.15737 2:0.1543 3:0.021506 4:-0.16085 5:-0.15571 
-100 1:0.15072 2:0.11923 3:0.091303 4:-0.15124 5:-0.13456 
-100 1:0.14746 2:0.10934 3:0.10743 4:-0.14725 5:-0.12792 
-100 1:0.15205 2:0.12314 3:0.085047 4:-0.15286 5:-0.13721 
-100 1:0.15535 2:0.14611 3:0.036623 4:-0.15817 5:-0.15054 
-100 1:0.15414 2:0.15977 3:-0.00033224 4:-0.1584 5:-0.15692 
-100 1:0.15337 2:0.12972 3:0.072123 4:-0.15472 5:-0.14121 
-100 1:0.16042 2:0.19346 3:-0.067675 4:-0.16751 5:-0.17717 
-100 1:0.15499 2:0.12807 3:0.080369 4:-0.15606 5:-0.14116 
-100 1:0.16191 2:0.17355 3:-0.01455 4:-0.16693 5:-0.16775 
-100 1:0.15344 2:0.12329 3:0.08822 4:-0.15416 5:-0.13797 
