svm_type c_svc
kernel_type rbf
gamma 0.005
nr_class 2
total_sv 4
rho 0.00450313
label 1 -1
nr_sv 2 2
SV
100 1:-0.11932 2:-0.31547 3:-0.068074 4:-0.022917 5:-0.046882 
100 1:-0.11302 2:-0.272 3:-0.067342 4:-0.014576 5:-0.048431 
-100 1:-0.16666 2:-0.64167 3:-0.07366 4:-0.085444 5:-0.035348 
-100 1:-0.16393 2:-0.62564 3:-0.07304 4:-0.082579 5:-0.035595 
