svm_type c_svc
kernel_type rbf
gamma 0.005
nr_class 2
total_sv 6
rho 0.159724
label 1 -1
nr_sv 3 3
SV
100 1:-0.053844 2:0.31489 3:0.090707 4:-0.37891 5:0.014673 
100 1:-0.038679 2:0.36412 3:0.10652 4:-0.49717 5:0.0032669 
100 1:-0.074673 2:0.23988 3:0.066775 4:-0.20441 5:0.03073 
-99.99999999999994 1:0.025802 2:0.59717 3:0.18085 4:-1.0387 5:-0.046485 
-100 1:0.019263 2:0.57818 3:0.1747 4:-0.99137 5:-0.041685 
-100 1:-0.0015067 2:0.50364 3:0.15092 4:-0.8178 5:-0.025687 
