svm_type c_svc
kernel_type rbf
gamma 0.005
nr_class 2
total_sv 4
rho -0.0361741
label 1 -1
nr_sv 2 2
SV
100 1:0.059002 2:-0.2592 3:-0.18402 4:-0.36174 5:0.15448 
100 1:0.059002 2:-0.2592 3:-0.18402 4:-0.36174 5:0.15448 
-100 1:-0.0032151 2:0.040134 3:-0.088563 4:-0.12667 5:-0.00022695 
-100 1:-0.028093 2:0.15997 3:-0.050965 4:-0.033526 5:-0.062039 
