svm_type c_svc
kernel_type rbf
gamma 0.005
nr_class 2
total_sv 4
rho 0.0143379
label 1 -1
nr_sv 2 2
SV
100 1:0.018576 2:-0.2146 3:0.068524 4:-0.019776 5:-0.012406 
100 1:0.021205 2:-0.26914 3:0.079244 4:-0.015311 5:-0.014902 
-100 1:-0.014197 2:0.45712 3:-0.064752 4:-0.072984 5:0.018463 
-100 1:-0.014872 2:0.47089 3:-0.067494 4:-0.074063 5:0.019097 
