svm_type c_svc
kernel_type rbf
gamma 0.005
nr_class 2
total_sv 176
rho 2.15207
label 1 -1
nr_sv 88 88
SV
100 1:0.057362 2:0.23411 3:-0.063414 4:-0.018734 5:-0.065907 
100 1:0.056403 2:0.2274 3:-0.067731 4:-0.017534 5:-0.066236 
100 1:0.056191 2:0.22525 3:-0.069946 4:-0.01706 5:-0.066644 
100 1:0.053921 2:0.20874 3:-0.081363 4:-0.014022 5:-0.067741 
100 1:0.058036 2:0.23823 3:-0.061535 4:-0.019387 5:-0.065984 
100 1:0.054364 2:0.21151 3:-0.080008 4:-0.014471 5:-0.067759 
100 1:0.060651 2:0.25608 3:-0.05064 4:-0.022515 5:-0.065321 
100 1:0.054827 2:0.2155 3:-0.076488 4:-0.015287 5:-0.067218 
100 1:0.052917 2:0.20114 3:-0.08697 4:-0.012586 5:-0.068374 
100 1:0.056697 2:0.22859 3:-0.068065 4:-0.017628 5:-0.066576 
100 1:0.056527 2:0.22677 3:-0.070039 4:-0.017216 5:-0.066956 
100 1:0.053998 2:0.2091 3:-0.081357 4:-0.014062 5:-0.067805 
100 1:0.053723 2:0.20728 3:-0.082392 4:-0.013752 5:-0.067846 
100 1:0.053688 2:0.20692 3:-0.08277 4:-0.013671 5:-0.067915 
100 1:0.053319 2:0.20416 3:-0.084774 4:-0.013153 5:-0.068133 
100 1:0.055305 2:0.21779 3:-0.07635 4:-0.015553 5:-0.06759 
100 1:0.053535 2:0.2055 3:-0.084137 4:-0.013368 5:-0.068149 
100 1:0.053336 2:0.20351 3:-0.086167 4:-0.012931 5:-0.068518 
100 1:0.054838 2:0.21385 3:-0.07974 4:-0.014756 5:-0.068093 
100 1:0.055019 2:0.21663 3:-0.076018 4:-0.015462 5:-0.067257 
100 1:0.056407 2:0.22581 3:-0.070803 4:-0.017029 5:-0.067056 
100 1:0.058661 2:0.24216 3:-0.059572 4:-0.020029 5:-0.065996 
100 1:0.055607 2:0.22105 3:-0.072786 4:-0.016295 5:-0.0669 
100 1:0.052796 2:0.19964 3:-0.088772 4:-0.012227 5:-0.06875 
100 1:0.054575 2:0.21234 3:-0.080308 4:-0.014529 5:-0.068019 
100 1:0.057273 2:0.23099 3:-0.068613 4:-0.017831 5:-0.067214 
100 1:0.05655 2:0.22771 3:-0.068449 4:-0.01749 5:-0.066553 
100 1:0.05504 2:0.21675 3:-0.075986 4:-0.015478 5:-0.067267 
100 1:0.055941 2:0.22321 3:-0.071632 4:-0.016655 5:-0.066879 
100 1:0.058866 2:0.24435 3:-0.057201 4:-0.020524 5:-0.06554 
100 1:0.056174 2:0.22527 3:-0.069767 4:-0.017082 5:-0.066582 
100 1:0.054163 2:0.21039 3:-0.080356 4:-0.014311 5:-0.06768 
100 1:0.055383 2:0.21959 3:-0.073587 4:-0.016049 5:-0.066921 
100 1:0.052212 2:0.19541 3:-0.091675 4:-0.011451 5:-0.069023 
100 1:0.055706 2:0.2218 3:-0.072242 4:-0.016435 5:-0.06684 
100 1:0.054725 2:0.21447 3:-0.077555 4:-0.015059 5:-0.067415 
100 1:0.056368 2:0.22657 3:-0.069012 4:-0.017305 5:-0.066547 
100 1:0.057425 2:0.23311 3:-0.065894 4:-0.018357 5:-0.066621 
100 1:0.054155 2:0.20999 3:-0.081059 4:-0.014191 5:-0.06786 
100 1:0.057059 2:0.23159 3:-0.065547 4:-0.018228 5:-0.066216 
100 1:0.058239 2:0.24028 3:-0.0594 4:-0.019842 5:-0.065589 
100 1:0.059359 2:0.24675 3:-0.057007 4:-0.020807 5:-0.065911 
100 1:0.055417 2:0.2185 3:-0.075987 4:-0.01567 5:-0.067589 
100 1:0.054175 2:0.21016 3:-0.080897 4:-0.014228 5:-0.067834 
100 1:0.056901 2:0.22961 3:-0.067928 4:-0.017755 5:-0.066715 
100 1:0.055445 2:0.21992 3:-0.073523 4:-0.016091 5:-0.066957 
100 1:0.052856 2:0.2006 3:-0.087458 4:-0.012474 5:-0.068451 
100 1:0.055041 2:0.21547 3:-0.078453 4:-0.015072 5:-0.067924 
100 1:0.053698 2:0.20604 3:-0.084547 4:-0.013383 5:-0.068397 
100 1:0.054177 2:0.20867 3:-0.083775 4:-0.013754 5:-0.068601 
100 1:0.053307 2:0.20286 3:-0.087162 4:-0.012753 5:-0.068758 
100 1:0.053484 2:0.20468 3:-0.085235 4:-0.01316 5:-0.068397 
100 1:0.055252 2:0.21827 3:-0.074969 4:-0.015754 5:-0.067178 
100 1:0.053511 2:0.20414 3:-0.086526 4:-0.012961 5:-0.068764 
100 1:0.052739 2:0.19897 3:-0.089561 4:-0.012068 5:-0.068911 
99.99999999999999 1:0.049578 2:0.17776 3:-0.10201 4:-0.0084052 5:-0.069521 
100 1:0.052657 2:0.19919 3:-0.088398 4:-0.012218 5:-0.068532 
100 1:0.056034 2:0.22422 3:-0.070524 4:-0.016885 5:-0.066664 
100 1:0.05283 2:0.19943 3:-0.089472 4:-0.012129 5:-0.068965 
100 1:0.05937 2:0.24855 3:-0.05365 4:-0.021367 5:-0.065026 
100 1:0.053794 2:0.20759 3:-0.082434 4:-0.013781 5:-0.067917 
100 1:0.052166 2:0.19529 3:-0.091478 4:-0.01146 5:-0.068931 
100 1:0.053176 2:0.20255 3:-0.086573 4:-0.012783 5:-0.06849 
100 1:0.057362 2:0.23411 3:-0.063414 4:-0.018734 5:-0.065907 
100 1:0.056191 2:0.22525 3:-0.069946 4:-0.01706 5:-0.066644 
100 1:0.061914 2:0.26645 3:-0.042023 4:-0.024579 5:-0.064108 
100 1:0.056425 2:0.22793 3:-0.0669 4:-0.017682 5:-0.066034 
100 1:0.053921 2:0.20874 3:-0.081363 4:-0.014022 5:-0.067741 
100 1:0.058036 2:0.23823 3:-0.061535 4:-0.019387 5:-0.065984 
100 1:0.054364 2:0.21151 3:-0.080008 4:-0.014471 5:-0.067759 
100 1:0.060651 2:0.25608 3:-0.05064 4:-0.022515 5:-0.065321 
100 1:0.054827 2:0.2155 3:-0.076488 4:-0.015287 5:-0.067218 
100 1:0.056697 2:0.22859 3:-0.068065 4:-0.017628 5:-0.066576 
100 1:0.056527 2:0.22677 3:-0.070039 4:-0.017216 5:-0.066956 
100 1:0.053998 2:0.2091 3:-0.081357 4:-0.014062 5:-0.067805 
100 1:0.053723 2:0.20728 3:-0.082392 4:-0.013752 5:-0.067846 
100 1:0.053688 2:0.20692 3:-0.08277 4:-0.013671 5:-0.067915 
100 1:0.053319 2:0.20416 3:-0.084774 4:-0.013153 5:-0.068133 
100 1:0.055305 2:0.21779 3:-0.07635 4:-0.015553 5:-0.06759 
100 1:0.053535 2:0.2055 3:-0.084137 4:-0.013368 5:-0.068149 
100 1:0.053336 2:0.20351 3:-0.086167 4:-0.012931 5:-0.068518 
100 1:0.054838 2:0.21385 3:-0.07974 4:-0.014756 5:-0.068093 
100 1:0.055019 2:0.21663 3:-0.076018 4:-0.015462 5:-0.067257 
100 1:0.056407 2:0.22581 3:-0.070803 4:-0.017029 5:-0.067056 
100 1:0.058661 2:0.24216 3:-0.059572 4:-0.020029 5:-0.065996 
100 1:0.055607 2:0.22105 3:-0.072786 4:-0.016295 5:-0.0669 
100 1:0.053106 2:0.20261 3:-0.085848 4:-0.012867 5:-0.068237 
100 1:0.054575 2:0.21234 3:-0.080308 4:-0.014529 5:-0.068019 
-100 1:0.047893 2:0.14034 3:-0.1588 4:0.0018193 5:-0.083186 
-100 1:0.052059 2:0.17051 3:-0.13812 4:-0.0037115 5:-0.081249 
-100 1:0.052628 2:0.17011 3:-0.14398 4:-0.0030353 5:-0.083292 
-100 1:0.044819 2:0.11593 3:-0.17819 4:0.0065833 5:-0.085719 
-100 1:0.053122 2:0.18197 3:-0.12562 4:-0.0063149 5:-0.078831 
-100 1:0.078809 2:0.37469 3:0.014752 4:-0.042543 5:-0.063447 
-100 1:0.078684 2:0.37676 3:0.019849 4:-0.04332 5:-0.061984 
-100 1:0.084319 2:0.42123 3:0.054847 4:-0.051962 5:-0.057491 
-100 1:0.084902 2:0.42886 3:0.064275 4:-0.053814 5:-0.055482 
-100 1:0.084223 2:0.42483 3:0.06261 4:-0.053193 5:-0.055344 
-100 1:0.074747 2:0.35664 3:0.016415 4:-0.04075 5:-0.059532 
-100 1:0.072908 2:0.34314 3:0.0069311 4:-0.03825 5:-0.060484 
-100 1:0.074164 2:0.35076 3:0.010332 4:-0.03945 5:-0.060653 
-100 1:0.079433 2:0.38707 3:0.032953 4:-0.045863 5:-0.059138 
-100 1:0.071868 2:0.32862 3:-0.01165 4:-0.034656 5:-0.064537 
-100 1:0.06402 2:0.26327 3:-0.066964 4:-0.021537 5:-0.072543 
-100 1:0.060284 2:0.23033 3:-0.096796 4:-0.014714 5:-0.077285 
-100 1:0.051966 2:0.16397 3:-0.14984 4:-0.001731 5:-0.084286 
-100 1:0.054108 2:0.17738 3:-0.14326 4:-0.0039062 5:-0.084368 
-100 1:0.046724 2:0.11972 3:-0.18795 4:0.0072238 5:-0.089944 
-100 1:0.060084 2:0.21814 3:-0.11842 4:-0.011046 5:-0.082867 
-100 1:0.057165 2:0.19483 3:-0.13707 4:-0.0064831 5:-0.085334 
-100 1:0.060591 2:0.22372 3:-0.11225 4:-0.012322 5:-0.081659 
-100 1:0.059383 2:0.21764 3:-0.11311 4:-0.011565 5:-0.080856 
-100 1:0.060912 2:0.22737 3:-0.10811 4:-0.013168 5:-0.080832 
-100 1:0.054649 2:0.17775 3:-0.14738 4:-0.0035022 5:-0.085925 
-100 1:0.064354 2:0.25047 3:-0.094537 4:-0.017159 5:-0.080165 
-100 1:0.060942 2:0.22173 3:-0.1192 4:-0.011353 5:-0.083809 
-100 1:0.075213 2:0.33551 3:-0.02833 4:-0.033607 5:-0.071834 
-100 1:0.072642 2:0.31959 3:-0.035906 4:-0.031048 5:-0.071652 
-100 1:0.078755 2:0.36367 3:-0.005921 4:-0.039106 5:-0.068901 
-100 1:0.084611 2:0.40882 3:0.028406 4:-0.047749 5:-0.064775 
-100 1:0.088737 2:0.43941 3:0.050251 4:-0.053452 5:-0.062491 
-100 1:0.090607 2:0.45818 3:0.069568 4:-0.057591 5:-0.058951 
-100 1:0.082419 2:0.39578 3:0.02296 4:-0.045735 5:-0.06435 
-100 1:0.091904 2:0.46716 3:0.07522 4:-0.059183 5:-0.058556 
-100 1:0.10617 2:0.58276 3:0.16967 4:-0.082021 5:-0.045622 
-100 1:0.099277 2:0.528 3:0.12612 4:-0.071331 5:-0.051319 
-100 1:0.092571 2:0.47644 3:0.087067 4:-0.061476 5:-0.055974 
-100 1:0.085131 2:0.41705 3:0.039562 4:-0.049854 5:-0.062252 
-100 1:0.076365 2:0.34793 3:-0.014786 4:-0.036427 5:-0.069216 
-100 1:0.079652 2:0.37014 3:-0.0015336 4:-0.040286 5:-0.068501 
-100 1:0.070274 2:0.29173 3:-0.068231 4:-0.024511 5:-0.078227 
-100 1:0.078453 2:0.36281 3:-0.004879 4:-0.039124 5:-0.068366 
-100 1:0.087735 2:0.43387 3:0.04857 4:-0.052665 5:-0.062082 
-100 1:0.099748 2:0.5337 3:0.13284 4:-0.072679 5:-0.049934 
-100 1:0.10149 2:0.54908 3:0.14682 4:-0.075872 5:-0.047699 
-100 1:0.092527 2:0.48613 3:0.10608 4:-0.064591 5:-0.050878 
-100 1:0.074963 2:0.34134 3:-0.014896 4:-0.035696 5:-0.068047 
-100 1:0.083078 2:0.40195 3:0.028929 4:-0.047055 5:-0.063325 
-100 1:0.067309 2:0.27519 3:-0.07349 4:-0.022135 5:-0.077091 
-100 1:0.084315 2:0.42026 3:0.053022 4:-0.051659 5:-0.057974 
-100 1:0.09731 2:0.52353 3:0.13512 4:-0.071815 5:-0.047241 
-100 1:0.084063 2:0.42093 3:0.056567 4:-0.052115 5:-0.056815 
-100 1:0.056456 2:0.21735 3:-0.087507 4:-0.014299 5:-0.071543 
-100 1:0.066313 2:0.28462 3:-0.046472 4:-0.026084 5:-0.069052 
-100 1:0.079436 2:0.37313 3:0.0061518 4:-0.041444 5:-0.066271 
-100 1:0.074616 2:0.33082 3:-0.032003 4:-0.032697 5:-0.072301 
-100 1:0.065617 2:0.27234 3:-0.063813 4:-0.02287 5:-0.07307 
-100 1:0.062434 2:0.23781 3:-0.10166 4:-0.015007 5:-0.080417 
-100 1:0.05489 2:0.19062 3:-0.12482 4:-0.0073473 5:-0.080129 
-100 1:0.054867 2:0.19253 3:-0.12095 4:-0.0079727 5:-0.079081 
-100 1:0.054172 2:0.19177 3:-0.11619 4:-0.0084048 5:-0.07722 
-100 1:0.050607 2:0.14859 3:-0.16723 4:0.0018287 5:-0.087749 
-100 1:0.034694 2:0.042945 3:-0.2278 4:0.019919 5:-0.09026 
-100 1:0.044265 2:0.11975 3:-0.1659 4:0.0048373 5:-0.081975 
-100 1:0.055555 2:0.19263 3:-0.1269 4:-0.0073417 5:-0.081252 
-100 1:0.047581 2:0.14407 3:-0.14884 4:0.00033556 5:-0.080271 
-100 1:0.040999 2:0.090561 3:-0.19274 4:0.010927 5:-0.086324 
-100 1:0.023879 2:-0.040848 3:-0.29199 4:0.036012 5:-0.09809 
-100 1:0.055583 2:0.18599 3:-0.1399 4:-0.0052109 5:-0.084735 
-100 1:0.046042 2:0.11445 3:-0.19197 4:0.0082342 5:-0.090431 
-100 1:0.051615 2:0.14938 3:-0.17473 4:0.0025532 5:-0.090608 
-100 1:0.047245 2:0.12111 3:-0.18995 4:0.0072872 5:-0.09092 
-100 1:-0.0011442 2:-0.22765 3:-0.42693 4:0.071007 5:-0.1126 
-100 1:-0.0038931 2:-0.24588 3:-0.43734 4:0.074124 5:-0.11302 
-100 1:-0.01501 2:-0.33931 3:-0.51735 4:0.092979 5:-0.1248 
-100 1:0.014948 2:-0.12232 3:-0.36858 4:0.053191 5:-0.11083 
-100 1:-0.040329 2:-0.51811 3:-0.63429 4:0.12516 5:-0.13426 
-100 1:0.020469 2:-0.080042 3:-0.33676 4:0.045132 5:-0.10709 
-100 1:0.018669 2:-0.10152 3:-0.36189 4:0.050195 5:-0.11223 
-100 1:0.013811 2:-0.13498 3:-0.38272 4:0.056103 5:-0.11362 
-100 1:0.0291 2:-0.016533 3:-0.29199 4:0.033355 5:-0.10255 
-100 1:0.02911 2:-0.01119 3:-0.28181 4:0.031671 5:-0.099856 
-100 1:0.018405 2:-0.093255 3:-0.34367 4:0.047323 5:-0.10716 
-100 1:0.023656 2:-0.053794 3:-0.31485 4:0.039897 5:-0.10398 
-100 1:0.089225 2:0.4764 3:0.11692 4:-0.064698 5:-0.045173 
-100 1:0.083449 2:0.43433 3:0.087788 4:-0.056953 5:-0.047984 
