svm_type c_svc
kernel_type rbf
gamma 0.005
nr_class 2
total_sv 2
rho -7.68399e-15
label 1 -1
nr_sv 1 1
SV
59.68147782620086 1:0.75025 2:-0.26901 3:0.52065 4:0.33291 5:-0.22174 
-59.68147782620087 1:-0.48089 2:0.1061 3:-0.56676 4:-0.32221 5:0.11209 
