svm_type c_svc
kernel_type rbf
gamma 0.005
nr_class 2
total_sv 18
rho -0.102925
label 1 -1
nr_sv 9 9
SV
100 1:-0.46357 2:-0.27244 3:0.29487 4:-0.61561 5:0.57013 
100 1:-0.46356 2:-0.27232 3:0.29566 4:-0.61469 5:0.57057 
100 1:-0.45783 2:-0.26722 3:0.30439 4:-0.59304 5:0.57042 
100 1:-0.45905 2:-0.26828 3:0.30273 4:-0.59744 5:0.57057 
65.34428485421211 1:-0.46461 2:-0.27311 3:0.29513 4:-0.61746 5:0.57119 
100 1:-0.46357 2:-0.27244 3:0.29487 4:-0.61561 5:0.57013 
100 1:-0.46356 2:-0.27232 3:0.29566 4:-0.61469 5:0.57057 
100 1:-0.45783 2:-0.26722 3:0.30439 4:-0.59304 5:0.57042 
100 1:-0.45905 2:-0.26828 3:0.30273 4:-0.59744 5:0.57057 
-100 1:-0.37569 2:-0.19103 3:0.45166 4:-0.25765 5:0.58072 
-100 1:-0.36939 2:-0.18498 3:0.46438 4:-0.2303 5:0.5823 
-100 1:-0.3831 2:-0.19776 3:0.43938 4:-0.28677 5:0.58036 
-100 1:-0.35232 2:-0.1692 3:0.49464 4:-0.161 5:0.58425 
-100 1:-0.38356 2:-0.19793 3:0.44041 4:-0.28653 5:0.58133 
-100 1:-0.35414 2:-0.17094 3:0.49098 4:-0.16886 5:0.5838 
-100 1:-0.35295 2:-0.16983 3:0.49318 4:-0.16394 5:0.58399 
-100 1:-0.37723 2:-0.19226 3:0.45028 4:-0.26236 5:0.58129 
-65.34428485421206 1:-0.35177 2:-0.16841 3:0.49763 4:-0.15648 5:0.58544 
